digraph Tree {
node [shape=box] ;
0 [label="m_H <= 125.908\ngini = 0.5\nsamples = 16000\nvalue = [8041, 7959]"] ;
1 [label="m_H <= 124.37\ngini = 0.257\nsamples = 7246\nvalue = [1098, 6148]"] ;
0 -> 1 [labeldistance=2.5, labelangle=45, headlabel="True"] ;
2 [label="m_H <= 123.445\ngini = 0.013\nsamples = 1088\nvalue = [1081, 7]"] ;
1 -> 2 ;
3 [label="m_H <= 119.661\ngini = 0.004\nsamples = 1073\nvalue = [1071, 2]"] ;
2 -> 3 ;
4 [label="gini = 0.0\nsamples = 1039\nvalue = [1039, 0]"] ;
3 -> 4 ;
5 [label="gini = 0.111\nsamples = 34\nvalue = [32, 2]"] ;
3 -> 5 ;
6 [label="gini = 0.444\nsamples = 15\nvalue = [10, 5]"] ;
2 -> 6 ;
7 [label="m_H <= 125.311\ngini = 0.006\nsamples = 6158\nvalue = [17, 6141]"] ;
1 -> 7 ;
8 [label="m_H <= 124.946\ngini = 0.003\nsamples = 6134\nvalue = [9, 6125]"] ;
7 -> 8 ;
9 [label="gini = 0.11\nsamples = 103\nvalue = [6, 97]"] ;
8 -> 9 ;
10 [label="Z_e_m <= 95.779\ngini = 0.001\nsamples = 6031\nvalue = [3, 6028]"] ;
8 -> 10 ;
11 [label="Z_e_m <= 7.37\ngini = 0.001\nsamples = 6014\nvalue = [2, 6012]"] ;
10 -> 11 ;
12 [label="gini = 0.083\nsamples = 23\nvalue = [1, 22]"] ;
11 -> 12 ;
13 [label="m_H <= 124.96\ngini = 0.0\nsamples = 5991\nvalue = [1, 5990]"] ;
11 -> 13 ;
14 [label="gini = 0.051\nsamples = 38\nvalue = [1, 37]"] ;
13 -> 14 ;
15 [label="gini = 0.0\nsamples = 5953\nvalue = [0, 5953]"] ;
13 -> 15 ;
16 [label="gini = 0.111\nsamples = 17\nvalue = [1, 16]"] ;
10 -> 16 ;
17 [label="gini = 0.444\nsamples = 24\nvalue = [8, 16]"] ;
7 -> 17 ;
18 [label="m_H <= 366.399\ngini = 0.328\nsamples = 8754\nvalue = [6943, 1811]"] ;
0 -> 18 [labeldistance=2.5, labelangle=-45, headlabel="False"] ;
19 [label="m_H <= 249.986\ngini = 0.203\nsamples = 6866\nvalue = [6080, 786]"] ;
18 -> 19 ;
20 [label="m_H <= 225.3\ngini = 0.139\nsamples = 4362\nvalue = [4035, 327]"] ;
19 -> 20 ;
21 [label="m_H <= 127.084\ngini = 0.118\nsamples = 3172\nvalue = [2973, 199]"] ;
20 -> 21 ;
22 [label="gini = 0.444\nsamples = 15\nvalue = [10, 5]"] ;
21 -> 22 ;
23 [label="Z_e_m <= 29.115\ngini = 0.115\nsamples = 3157\nvalue = [2963, 194]"] ;
21 -> 23 ;
24 [label="gini = 0.018\nsamples = 221\nvalue = [219, 2]"] ;
23 -> 24 ;
25 [label="Z_e_m <= 29.504\ngini = 0.122\nsamples = 2936\nvalue = [2744, 192]"] ;
23 -> 25 ;
26 [label="gini = 0.444\nsamples = 3\nvalue = [1, 2]"] ;
25 -> 26 ;
27 [label="delR_e <= 1.705\ngini = 0.121\nsamples = 2933\nvalue = [2743, 190]"] ;
25 -> 27 ;
28 [label="gini = 0.0\nsamples = 1\nvalue = [0, 1]"] ;
27 -> 28 ;
29 [label="Z_mu_m <= 52.703\ngini = 0.121\nsamples = 2932\nvalue = [2743, 189]"] ;
27 -> 29 ;
30 [label="gini = 0.049\nsamples = 318\nvalue = [310, 8]"] ;
29 -> 30 ;
31 [label="Z_mu_m <= 52.788\ngini = 0.129\nsamples = 2614\nvalue = [2433, 181]"] ;
29 -> 31 ;
32 [label="gini = 0.0\nsamples = 1\nvalue = [0, 1]"] ;
31 -> 32 ;
33 [label="Z_mu_m <= 85.683\ngini = 0.128\nsamples = 2613\nvalue = [2433, 180]"] ;
31 -> 33 ;
34 [label="gini = 0.214\nsamples = 221\nvalue = [194, 27]"] ;
33 -> 34 ;
35 [label="delR_mu <= 27.878\ngini = 0.12\nsamples = 2392\nvalue = [2239, 153]"] ;
33 -> 35 ;
36 [label="gini = 0.155\nsamples = 603\nvalue = [552, 51]"] ;
35 -> 36 ;
37 [label="gini = 0.108\nsamples = 1789\nvalue = [1687, 102]"] ;
35 -> 37 ;
38 [label="delR_Z <= 3.241\ngini = 0.192\nsamples = 1190\nvalue = [1062, 128]"] ;
20 -> 38 ;
39 [label="gini = 0.263\nsamples = 436\nvalue = [368, 68]"] ;
38 -> 39 ;
40 [label="gini = 0.146\nsamples = 754\nvalue = [694, 60]"] ;
38 -> 40 ;
41 [label="delR_Z <= 3.227\ngini = 0.299\nsamples = 2504\nvalue = [2045, 459]"] ;
19 -> 41 ;
42 [label="gini = 0.43\nsamples = 646\nvalue = [444, 202]"] ;
41 -> 42 ;
43 [label="Z_mu_m <= 94.525\ngini = 0.238\nsamples = 1858\nvalue = [1601, 257]"] ;
41 -> 43 ;
44 [label="m_H <= 306.066\ngini = 0.256\nsamples = 1599\nvalue = [1358, 241]"] ;
43 -> 44 ;
45 [label="Z_e_m <= 88.616\ngini = 0.214\nsamples = 1018\nvalue = [894, 124]"] ;
44 -> 45 ;
46 [label="gini = 0.31\nsamples = 125\nvalue = [101, 24]"] ;
45 -> 46 ;
47 [label="m_H <= 262.167\ngini = 0.199\nsamples = 893\nvalue = [793, 100]"] ;
45 -> 47 ;
48 [label="gini = 0.265\nsamples = 254\nvalue = [214, 40]"] ;
47 -> 48 ;
49 [label="gini = 0.17\nsamples = 639\nvalue = [579, 60]"] ;
47 -> 49 ;
50 [label="gini = 0.322\nsamples = 581\nvalue = [464, 117]"] ;
44 -> 50 ;
51 [label="gini = 0.116\nsamples = 259\nvalue = [243, 16]"] ;
43 -> 51 ;
52 [label="m_H <= 572.457\ngini = 0.496\nsamples = 1888\nvalue = [863, 1025]"] ;
18 -> 52 ;
53 [label="delR_Z <= 3.331\ngini = 0.486\nsamples = 1207\nvalue = [704, 503]"] ;
52 -> 53 ;
54 [label="gini = 0.496\nsamples = 407\nvalue = [185, 222]"] ;
53 -> 54 ;
55 [label="delR_Z <= 4.642\ngini = 0.456\nsamples = 800\nvalue = [519, 281]"] ;
53 -> 55 ;
56 [label="gini = 0.401\nsamples = 476\nvalue = [344, 132]"] ;
55 -> 56 ;
57 [label="gini = 0.497\nsamples = 324\nvalue = [175, 149]"] ;
55 -> 57 ;
58 [label="gini = 0.358\nsamples = 681\nvalue = [159, 522]"] ;
52 -> 58 ;
}
